#global bias W0
0.639526
#unary interactions Wj
0
0.0552438
-0.403737
0.164436
0
0.386181
0.386181
3.35729
0
0
0.386181
0.386181
0.0465958
0.0465958
0.0465958
-0.846923
-2.91814
0
#pairwise interactions Vj,f
-0.036459 0.0159931 0.0381842 0.0128143 -0.0756799 0.0868982 -0.0736402 -0.114548
0.165733 -0.226832 -0.13757 -0.00949522 -0.0593365 0.00303357 -0.141636 -0.0316225
0.00164724 0.00047035 0.0183459 -0.0190999 -0.0240217 -0.0101579 0.00350188 0.0119247
0.0073322 -0.00271238 -0.118804 0.111057 -0.236502 -0.0853841 0.16369 0.0979574
0.0309805 0.204176 0.0616638 -0.114229 -0.0794921 -0.049455 -0.00791356 0.0901604
0.078567 -0.186313 0.226948 -0.179417 -0.253091 -0.208364 0.172095 0.180845
0.0149897 -0.31805 0.158631 -0.0446932 -0.163336 -0.144223 -0.0508518 0.10209
-0.0434522 -0.238573 0.228584 -0.137255 -0.285139 -0.138695 0.1811 0.0213908
0.150802 0.123167 0.0146475 -0.0299757 -0.0504611 0.0667865 -0.180677 -0.0297019
0.151474 0.0648416 0.083305 -0.0307332 0.0323505 0.148384 -0.121122 -0.0442684
0.00854374 -0.277292 0.244836 -0.138732 -0.20187 -0.114021 0.0661708 0.0377213
0.02169 -0.209165 0.116453 -0.0832521 -0.282344 -0.175624 0.130675 0.0906586
-0.0195478 0.000594187 -0.000528554 0.00256658 -0.00592069 0.00562633 -0.00267558 -0.00460598
-0.00296976 0.0115086 0.00901999 -0.00867019 -0.00495666 -0.0149373 0.0158276 -0.00372207
0.023758 -0.0106789 0.00678188 -0.00985331 -0.00620905 0.00201436 -0.0118077 0.017387
0.00557362 0.00977266 0.0414917 -0.0464235 -0.0532934 -0.0219423 0.00283364 0.030618
-0.0714977 -0.252238 -0.148453 0.251764 0.173114 0.0555515 0.120733 -0.206243
-0.0533462 -0.0853748 0.0232728 0.106283 -0.0511288 0.0407149 0.115335 -0.0885387
