#global bias W0
0.641682
#unary interactions Wj
0
0.0532583
-0.404107
0.161911
0
0.304701
0.304701
3.33816
0
0
0.304701
0.304701
0.0463295
0.0463295
0.0463295
-0.849725
-2.88412
0
#pairwise interactions Vj,f
0.0889895 0.113437 -0.119265 0.0451874 -0.0532913 0.169953 0.20955 0.0232377
0.0772272 0.0287471 -0.0857564 -0.0837714 0.148671 0.00606903 0.00581352 0.0697325
-0.0176315 -0.0105292 -0.00666898 -0.00388085 -0.0242842 -0.00987252 -0.0211778 0.00776114
-0.0176136 -0.131994 -0.00494421 -0.109784 0.0232072 -0.172072 0.289631 0.0680901
0.0847429 -0.13562 0.0489915 -0.0931464 0.00666875 0.0363712 0.00108268 0.221963
-0.216136 0.0744496 0.21071 -0.125968 -0.265449 -0.227103 -0.187767 0.146192
-0.200465 0.199345 0.104171 -0.0174752 -0.390052 -0.0842021 -0.220623 0.164583
-0.278289 0.235091 0.188007 -0.0219264 -0.29484 -0.120386 -0.0282984 0.0451416
0.0316946 -0.129192 -0.143826 -0.072524 0.15875 0.114392 0.0117167 0.118975
0.0390728 -0.111821 -0.172812 -0.0506131 0.145857 -0.0843334 -0.0981439 0.156268
-0.304214 0.00533144 0.127555 -0.00450223 -0.260255 -0.118834 -0.290105 0.277199
-0.324891 0.0817123 0.0475331 0.0583496 -0.283875 -0.0824812 -0.309329 0.218472
-0.0244474 0.00678717 0.0170576 0.00614173 0.00383894 -0.00319738 0.0100558 0.0138758
0.0102372 -0.00985483 -0.00639522 0.00218734 -0.0226288 -0.00167162 -0.0103247 -0.0228857
0.000696306 -0.00542972 -0.0165888 -0.0105892 -0.000478302 -0.00165892 -0.0189546 0.0146656
-0.0373238 -0.0356457 -0.0240715 -0.009115 -0.0546466 -0.0215544 -0.056095 0.0186569
0.0705053 0.431638 0.317926 0.0447667 0.189808 0.0609594 0.411215 -0.0992622
0.0598992 -0.0526128 0.19404 0.186157 -0.0699518 -0.275541 0.147305 -0.151991
